{"model_encoding": {"mole_frac_1_gas_phase": {"attr": {"x_data_columns": ["temperature", "pressure", "mole_frac_1"], "x_data": [[381.812812, 153895.441, 0.4871194], [289.961746, 79506.0044, 0.44733763], [328.756632, 146766.7486, 0.46992767], [229.812962, 58786.1212, 0.2833101], [302.073844, 181163.4855, 0.2153812], [322.038795, 164825.8828, 0.40353544], [244.366879, 158491.1943, 0.30608701], [260.508439, 122944.0528, 0.07887465], [313.001257, 140646.6182, 0.34822972], [326.552819, 197623.7101, 0.04786856], [207.698969, 107714.6254, 0.37484716], [311.078128, 169883.5685, 0.13019146], [353.109418, 93127.81, 0.05956221], [256.02684, 191832.5703, 0.30526383], [258.31168, 196160.038, 0.49639908], [359.834562, 196982.8679, 0.43173657], [268.778002, 195968.3038, 0.49853809], [269.494612, 138821.5254, 0.00289994], [330.130719, 171621.6991, 0.18459969], [346.892386, 172478.5679, 0.29616329]], "x_data_min": [[207.698969, 58786.1212, 0.00289994]], "x_data_max": [[381.812812, 197623.7101, 0.49853809]], "x_data_scaled": [[1.0, 0.6850401289272173, 0.9769616402611462], [0.47246546042866905, 0.1492382816797822, 0.8966979035007696], [0.6952787952650038, 0.6336945786588778, 0.9422755895606503], [0.12700881572064315, 0.0, 0.5657558039065396], [0.5420297052429083, 0.8814425925254599, 0.4287023910487924], [0.6566957803579121, 0.7637683889510415, 0.8083225635476204], [0.21059732740492096, 0.7181417791100808, 0.6117105190550808], [0.30330425823752566, 0.46210779161694304, 0.15328664671999118], [0.6047898672824079, 0.5896133579427206, 0.6967376905914123], [0.6826214846110771, 1.0, 0.09072873022385383], [0.0, 0.3524153983633463, 0.7504410626986644], [0.5937446283349221, 0.8001971813268791, 0.25682349108921504], [0.8351458246774783, 0.24735152109804462, 0.11432184951864581], [0.27756478271518015, 0.9582883868419009, 0.6100496703088736], [0.2906874613065661, 0.9894576669647135, 0.9956843314018503], [0.8737708063798235, 0.995384231280035, 0.8652211900960408], [0.35079940771854656, 0.9880766706400215, 1.0], [0.3549151631786107, 0.5764678343531794, 0.0], [0.7031706835624781, 0.8127163457244395, 0.3665975873729656], [0.799439117543342, 0.8188880806759674, 0.5916884122015225]], "optimal_weights": [6.38220984017664, 1.132583408245727, 0.001], "optimal_p": 2, "optimal_mean": [[0.08348850248955483]], "optimal_variance": [[0.043368624988673374]], "regularization_parameter": 0.0002735549782360711, "optimal_covariance_matrix": [[1.000273554978236, 0.12230040388431607, 0.5512277134223023, 0.004536330858461078, 0.25093207617595004, 0.46802129694315714, 0.018713867442709052, 0.04264713620992673, 0.36522700613482295, 0.46953531727589093, 0.0014921021910844713, 0.34339299228010245, 0.6762697013470755, 0.03285489513628236, 0.036297674162946804, 0.8099454093315961, 0.06118445563969431, 0.06924096280650348, 0.5592512193966859, 0.7579322729866284], [0.12230040388431607, 1.000273554978236, 0.5584072028420781, 0.4552132500791749, 0.528185412857375, 0.525007778989009, 0.44739978593240975, 0.7452403980052619, 0.7178942463994237, 0.33211227197302046, 0.22959568042054462, 0.5631482186601381, 0.4269827653681812, 0.37386343952924195, 0.3640489157287224, 0.15902115871106084, 0.4100704564669347, 0.7439966149492601, 0.432341168279243, 0.30412644057022825], [0.5512277134223023, 0.5584072028420781, 1.000273554978236, 0.08078500724212918, 0.8027847235075543, 0.9717261870512522, 0.22146956448087532, 0.36256317562837237, 0.946939401686007, 0.8575144330063711, 0.0417989030971175, 0.9069536056263896, 0.7448370593197874, 0.2914052078148563, 0.3048055153083053, 0.7036296065274247, 0.4067354399224937, 0.47522856068286123, 0.9636502777371402, 0.8974393993450377], [0.004536330858461078, 0.4552132500791749, 0.08078500724212918, 1.000273554978236, 0.13817198959992905, 0.08617388357685603, 0.5332849392040679, 0.6437880682974331, 0.15713497470086957, 0.044912822676429195, 0.7837618356030696, 0.12055833035139983, 0.038009896453925295, 0.3058261955433458, 0.27803790019403724, 0.009266929354511275, 0.240373826741848, 0.4925324081409574, 0.05688211977502493, 0.026114048246145445], [0.25093207617595004, 0.528185412857375, 0.8027847235075543, 0.13817198959992905, 1.000273554978236, 0.9050704375751983, 0.4812802386702602, 0.5695251535658952, 0.8854440496657785, 0.8674609977809407, 0.11167656660876847, 0.9757251778163495, 0.3664771769876779, 0.6356522256470786, 0.6592064841898909, 0.48808265971177184, 0.7814563439765347, 0.719658917826639, 0.8427571055909546, 0.6522410050956423], [0.46802129694315714, 0.525007778989009, 0.9717261870512522, 0.08617388357685603, 0.9050704375751983, 1.000273554978236, 0.2801358388726385, 0.40635055280411875, 0.9497478229330949, 0.9342521270753169, 0.05265610599979052, 0.9732650018404345, 0.6030446927237878, 0.38278765119285624, 0.4014396198627506, 0.6966296068476034, 0.5198465100171054, 0.5370716364378985, 0.983444846526412, 0.8750015135787996], [0.018713867442709052, 0.44739978593240975, 0.22146956448087532, 0.5332849392040679, 0.4812802386702602, 0.2801358388726385, 1.000273554978236, 0.8787039598091295, 0.36406083911397225, 0.22041388033749615, 0.6475445312126279, 0.38880709106647227, 0.06452341181082846, 0.9103387943828901, 0.8829755633333759, 0.055353888883514266, 0.8121022860022554, 0.8555307866552522, 0.21041018891421862, 0.1081291173378205], [0.04264713620992673, 0.7452403980052619, 0.36256317562837237, 0.6437880682974331, 0.5695251535658952, 0.40635055280411875, 0.8787039598091295, 1.000273554978236, 0.549464913820778, 0.2876604941217558, 0.5482050062662692, 0.5128123849195146, 0.1560655133592569, 0.7533136850641208, 0.7285531965212669, 0.09075687784839151, 0.7200494333544367, 0.9686655552048423, 0.31356721426427137, 0.17990238728833513], [0.36522700613482295, 0.7178942463994237, 0.946939401686007, 0.15713497470086957, 0.8854440496657785, 0.9497478229330949, 0.36406083911397225, 0.549464913820778, 1.000273554978236, 0.794711861525369, 0.09088583018115354, 0.9500913251391698, 0.6239541767242056, 0.43286350466469803, 0.4444878538691838, 0.5229518484009557, 0.5534192841344986, 0.6708769498220095, 0.8884691937418778, 0.7398123478311894], [0.46953531727589093, 0.33211227197302046, 0.8575144330063711, 0.044912822676429195, 0.8674609977809407, 0.9342521270753169, 0.22041388033749615, 0.2876604941217558, 0.794711861525369, 1.000273554978236, 0.03176679707188364, 0.9087771960868742, 0.4538176769500626, 0.35015640796824954, 0.3748120356073803, 0.7915062089152006, 0.49474802420927433, 0.41124541206978404, 0.9583936578819052, 0.8829423624237367], [0.0014921021910844713, 0.22959568042054462, 0.0417989030971175, 0.7837618356030696, 0.11167656660876847, 0.05265610599979052, 0.6475445312126279, 0.5482050062662692, 0.09088583018115354, 0.03176679707188364, 1.000273554978236, 0.08397183366736094, 0.011512783982593026, 0.40354376940224007, 0.3682548696891684, 0.004791586987749191, 0.2884896535475992, 0.42259040025167066, 0.033513966847176065, 0.013228779990517784], [0.34339299228010245, 0.5631482186601381, 0.9069536056263896, 0.12055833035139983, 0.9757251778163495, 0.9732650018404345, 0.38880709106647227, 0.5128123849195146, 0.9500913251391698, 0.9087771960868742, 0.08397183366736094, 1.000273554978236, 0.48767721886973786, 0.5135238513009283, 0.5340424511255599, 0.5804346207063775, 0.6588731497901443, 0.6565244377728675, 0.926250527297635, 0.7629669815951517], [0.6762697013470755, 0.4269827653681812, 0.7448370593197874, 0.038009896453925295, 0.3664771769876779, 0.6030446927237878, 0.06452341181082846, 0.1560655133592569, 0.6239541767242056, 0.4538176769500626, 0.011512783982593026, 0.48767721886973786, 1.000273554978236, 0.07754504971858825, 0.08074779164863963, 0.5252789781307613, 0.12010185803048226, 0.20299651686236828, 0.6229796749231878, 0.6850058210674919], [0.03285489513628236, 0.37386343952924195, 0.2914052078148563, 0.3058261955433458, 0.6356522256470786, 0.38278765119285624, 0.9103387943828901, 0.7533136850641208, 0.43286350466469803, 0.35015640796824954, 0.40354376940224007, 0.5135238513009283, 0.07754504971858825, 1.000273554978236, 0.9976546620426626, 0.10328590820915678, 0.9652319713745355, 0.8157288228024926, 0.30723694357013354, 0.17200666399435846], [0.036297674162946804, 0.3640489157287224, 0.3048055153083053, 0.27803790019403724, 0.6592064841898909, 0.4014396198627506, 0.8829755633333759, 0.7285531965212669, 0.4444878538691838, 0.3748120356073803, 0.3682548696891684, 0.5340424511255599, 0.08074779164863963, 0.9976546620426626, 1.000273554978236, 0.1141867524220033, 0.977199989935436, 0.8021229550676795, 0.3257388237216167, 0.18544243555832082], [0.8099454093315961, 0.15902115871106084, 0.7036296065274247, 0.009266929354511275, 0.48808265971177184, 0.6966296068476034, 0.055353888883514266, 0.09075687784839151, 0.5229518484009557, 0.7915062089152006, 0.004791586987749191, 0.5804346207063775, 0.5252789781307613, 0.10328590820915678, 0.1141867524220033, 1.000273554978236, 0.1745389784977549, 0.1469491051437258, 0.7994825552690561, 0.9318170440182441], [0.06118445563969431, 0.4100704564669347, 0.4067354399224937, 0.240373826741848, 0.7814563439765347, 0.5198465100171054, 0.8121022860022554, 0.7200494333544367, 0.5534192841344986, 0.49474802420927433, 0.2884896535475992, 0.6588731497901443, 0.12010185803048226, 0.9652319713745355, 0.977199989935436, 0.1745389784977549, 1.000273554978236, 0.8244881830173879, 0.43706212779277204, 0.26788902268665343], [0.06924096280650348, 0.7439966149492601, 0.47522856068286123, 0.4925324081409574, 0.719658917826639, 0.5370716364378985, 0.8555307866552522, 0.9686655552048423, 0.6708769498220095, 0.41124541206978404, 0.42259040025167066, 0.6565244377728675, 0.20299651686236828, 0.8157288228024926, 0.8021229550676795, 0.1469491051437258, 0.8244881830173879, 1.000273554978236, 0.43283691500604077, 0.26499513601014607], [0.5592512193966859, 0.432341168279243, 0.9636502777371402, 0.05688211977502493, 0.8427571055909546, 0.983444846526412, 0.21041018891421862, 0.31356721426427137, 0.8884691937418778, 0.9583936578819052, 0.033513966847176065, 0.926250527297635, 0.6229796749231878, 0.30723694357013354, 0.3257388237216167, 0.7994825552690561, 0.43706212779277204, 0.43283691500604077, 1.000273554978236, 0.9424789945228584], [0.7579322729866284, 0.30412644057022825, 0.8974393993450377, 0.026114048246145445, 0.6522410050956423, 0.8750015135787996, 0.1081291173378205, 0.17990238728833513, 0.7398123478311894, 0.8829423624237367, 0.013228779990517784, 0.7629669815951517, 0.6850058210674919, 0.17200666399435846, 0.18544243555832082, 0.9318170440182441, 0.26788902268665343, 0.26499513601014607, 0.9424789945228584, 1.000273554978236]], "covariance_matrix_inverse": [[12.896112590135706, 0.8846919135898964, 14.024699250672738, 0.6387844336605173, -24.052918371147275, 3.8435594319786817, 0.6180356781184629, -14.286336222500175, -4.822101967356401, 15.893273021171101, 0.49677187478457374, -21.133279677800463, -4.8419621000227355, -3.153109295072787, -8.957849323654209, -3.1594105902774756, 17.23157882169391, 20.40313314640379, 43.48145405946621, -44.692636899801414], [0.8846919135890445, 17.892014751751102, 37.808502032622016, 0.3218565890906206, -13.642613976659934, 18.192756713588345, 16.38111099391657, -39.483605673010445, -74.32380635429276, -15.00620845581459, 0.41159832005765695, 34.594562657657654, -1.8761277453305323, -18.92881453699665, -1.6097020678133809, 5.762865215588655, 11.508688092880071, 34.152866001997964, 10.220053183113086, -22.194277338668023], [14.024699250657925, 37.80850203262472, 1121.2010160140544, -3.2464950242779977, 121.1553714792883, -509.64810679459725, -44.96780373068358, -120.70338554765577, -686.4965083205511, 111.68915884063769, 11.238096207707155, 322.14657235643597, -72.74893601009599, -39.768880133799286, 193.62991197551855, 107.75917867640875, -235.93607626821841, 240.37163576565894, -238.93749662445586, -326.2832514670769], [0.6387844336608837, 0.3218565890900338, -3.2464950242879054, 9.17287078397392, -1.688428429206005, -2.9320879712923085, 17.580831067148814, -37.48660331398686, 9.608288560534438, 7.931107225870929, -5.670616613478933, -11.977493031253301, -0.6887161662833196, -18.461847819359704, 4.643791530129198, -3.5132205000676233, 3.776885172889829, 29.85041671486205, -2.0754100636314234, 4.796705723467591], [-24.05291837115305, -13.642613976635836, 121.15537147961531, -1.6884284292036333, 1115.2752268178767, -278.39417132051005, -60.94917236347217, 74.44648914631792, 151.16378621303627, -164.76700260379866, -2.696569571292999, -1054.535176775112, -15.502184951355861, 144.78654754331842, 253.46542340100615, 19.560643417811686, -577.353644238879, -62.4757877507739, 358.50535778333585, 15.135763457127121], [3.843559431990658, 18.192756713576593, -509.64810679468775, -2.932087971292247, -278.3941713202845, 1666.1856080182333, -35.59918072296046, -54.893086173349126, -115.24038720971426, 5.1070399762633105, 11.283758404279673, -356.96134159067196, 51.336841015949105, 98.5727555599279, -177.86627198097673, 6.250316714355429, 170.34207621190808, 98.58715948207818, -637.2802862514288, 43.238322907749286], [0.6180356781186849, 16.38111099391067, -44.96780373075439, 17.580831067148193, -60.94917236344148, -35.59918072293362, 154.83702248015683, -120.13436502315915, 38.4491242179965, 0.05359611455225945, -23.994139560475638, 37.444413749307074, -3.013010401712501, -253.97100210856613, 55.38086066235708, -12.820226556325675, 135.00233978194478, 42.65662361431362, 23.03063389679115, 31.716242560915475], [-14.28633622250029, -39.48360567300702, -120.7033855475843, -37.486603313989384, 74.44648914642909, -54.89308617338327, -120.13436502318325, 386.8397917344781, 158.03950388954667, -55.19105493472262, 9.801120265572516, 66.06361456149762, 10.809961926456756, 254.39723017337374, -132.34184623764386, 10.642264731328387, -31.80395851810796, -398.4198506043796, -54.74103681705786, 85.41742621387522], [-4.822101967346307, -74.32380635429246, -686.4965083205076, 9.608288560524901, 151.16378621336182, -115.24038720985963, 38.44912421792189, 158.03950388960803, 805.3828172235377, 43.138227716097575, -18.857407122808578, -479.9723315917875, 16.40099345270933, 86.7262470647402, -168.74354853406047, -122.52491073642322, 118.50951961825852, -276.0550598137225, 181.345106189143, 333.99096044072655], [15.893273021173435, -15.006208455823304, 111.68915884052001, 7.931107225871368, -164.76700260379323, 5.1070399763087675, 0.053596114554728444, -55.191054934690136, 43.13822771621421, 214.36718444865815, -1.0385149524120254, 93.1211750700161, -19.38757866624045, 2.809490144945986, -27.106253440800476, -61.47810334601788, 40.60707996413591, 75.87046024700612, -371.35818118276984, 106.87092846223968], [0.49677187478441653, 0.4115983200583842, 11.238096207715202, -5.670616613478701, -2.696569571302093, 11.283758404280109, -23.99413956047443, 9.801120265568592, -18.857407122817424, -1.0385149524093429, 8.479958192513003, 0.2041382314411669, 0.21970811491487002, 21.504904960302692, 0.25419983814136243, 2.506830848226243, -11.389478828533507, 5.952235911966604, 4.104812333256232, -11.746654613178556], [-21.133279677803454, 34.59456265762754, 322.146572355948, -11.97749303124758, -1054.5351767754557, -356.9613415902317, 37.4444137493981, 66.06361456157367, -479.97233159139364, 93.12117507012535, 0.20413823142479753, 1916.1929292472864, 7.907912272033901, -165.38479577179436, 2.17770630620636, 19.067893599268295, 268.28914522444353, -107.10821566821927, -748.1352863560207, 178.2185564725897], [-4.841962100021835, -1.8761277453306215, -72.74893601009875, -0.6887161662835941, -15.50218495134809, 51.3368410159498, -3.01301040171415, 10.809961926458072, 16.40099345271186, -19.387578666244533, 0.21970811491514333, 7.907912272014848, 12.798477393778448, 0.45815834115480036, 1.5806077317726615, 5.296531246213695, 2.830426283628157, -12.05463805974677, 18.09240544582733, 3.375881005202446], [-3.1531092950676074, -18.92881453697992, -39.76888013354057, -18.461847819368995, 144.786547543551, 98.57275555970936, -253.9710021086175, 254.3972301733923, 86.7262470645203, 2.8094901448258445, 21.504904960310764, -165.38479577188687, 0.4581583411486278, 1361.7177836176613, -1209.516648380528, -0.15404749103333773, 48.5764183014169, -252.83239243706106, -98.36586825188493, 41.16736674589823], [-8.957849323662442, -1.6097020678200413, 193.6299119753467, 4.643791530144891, 253.4654234005637, -177.86627198077005, 55.380860662428375, -132.34184623774527, -168.74354853396758, -27.106253440625487, 0.2541998381337501, 2.1777063066490006, 1.5806077317790586, -1209.5166483806856, 1582.5012600092152, 16.736716087355315, -607.1297076845851, 243.05720551142994, 1.3223421376756508, -16.477011869054817], [-3.15941059027962, 5.762865215592035, 107.7591786764548, -3.513220500066779, 19.560643417789077, 6.250316714339115, -12.82022655631688, 10.64226473130879, -122.52491073646749, -61.47810334600956, 2.506830848226123, 19.067893599340227, 5.296531246211907, -0.15404749111505675, 16.73671608744705, 75.49474862878598, -17.354369925925813, 6.220582237627395, 118.36774374421462, -169.94814904650636], [17.231578821699095, 11.508688092869734, -235.93607626829026, 3.776885172880827, -577.3536442385952, 170.34207621190404, 135.00233978191528, -31.803958518004073, 118.50951961838638, 40.60707996405443, -11.389478828533106, 268.2891452239941, 2.830426283626685, 48.57641830161252, -607.1297076847687, -17.354369925901533, 690.5074331731396, -73.06395643519242, 83.04803510966165, -39.75983904137403], [20.403133146402425, 34.15286600199726, 240.37163576561397, 29.85041671486685, -62.47578775096301, 98.58715948211628, 42.65662361434991, -398.41985060440436, -276.0550598136943, 75.87046024706349, 5.952235911961856, -107.10821566802541, -12.054638059746411, -252.83239243709397, 243.05720551136446, 6.220582237601687, -73.06395643507504, 498.6267810074841, 70.36022492965263, -179.86655007692806], [43.48145405945987, 10.22005318315236, -238.93749662390482, -2.0754100636404673, 358.50535778342356, -637.2802862517673, 23.030633896761852, -54.74103681713769, 181.3451061886465, -371.35818118282657, 4.104812333269203, -748.1352863556635, 18.0924054458042, -98.3658682522582, 1.3223421382775296, 118.36774374427229, 83.04803510933209, 70.36022492983169, 1980.2830027700886, -739.0381007692911], [-44.69263689979487, -22.194277338685, -326.28325146732413, 4.796705723467779, 15.135763457168384, 43.23832290787789, 31.716242560896124, 85.41742621393529, 333.9909604409441, 106.87092846222913, -11.746654613180208, 178.21855647232667, 3.3758810052137194, 41.167366746167495, -16.477011869383322, -169.94814904652014, -39.759839041260314, -179.8665500770197, -739.0381007691466, 697.2197466998458]], "optimal_y_mu": [[0.4036308975104451], [-0.059315699489554834], [0.027822971634366367], [-0.08333907448955484], [-0.061310697643635934], [-0.012096148489554828], [-0.08321439548955484], [-0.08181181948955484], [-0.031093663489554835], [-0.035619942489554836], [-0.083483753186345], [-0.044343565489554836], [-0.023926292489554836], [-0.08277542348955483], [-0.08262605148955483], [0.23327790148668978], [-0.08130869548955483], [-0.08058856248955483], [0.01819324593464687], [0.13059422522026168]], "training_R2": 0.9998457068129546, "training_rmse": 0.0015247829403334037}, "map": {"x_data_columns": "list", "x_data": "numpy", "x_data_min": "numpy", "x_data_max": "numpy", "x_data_scaled": "numpy", "optimal_weights": "numpy", "optimal_p": "str", "optimal_mean": "numpy", "optimal_variance": "numpy", "regularization_parameter": "str", "optimal_covariance_matrix": "numpy", "covariance_matrix_inverse": "numpy", "optimal_y_mu": "numpy", "training_R2": "str", "training_rmse": "str"}}, "enth_mol_gas_phase": {"attr": {"x_data_columns": ["temperature", "pressure", "mole_frac_1"], "x_data": [[381.812812, 153895.441, 0.4871194], [289.961746, 79506.0044, 0.44733763], [328.756632, 146766.7486, 0.46992767], [229.812962, 58786.1212, 0.2833101], [302.073844, 181163.4855, 0.2153812], [322.038795, 164825.8828, 0.40353544], [244.366879, 158491.1943, 0.30608701], [260.508439, 122944.0528, 0.07887465], [313.001257, 140646.6182, 0.34822972], [326.552819, 197623.7101, 0.04786856], [207.698969, 107714.6254, 0.37484716], [311.078128, 169883.5685, 0.13019146], [353.109418, 93127.81, 0.05956221], [256.02684, 191832.5703, 0.30526383], [258.31168, 196160.038, 0.49639908], [359.834562, 196982.8679, 0.43173657], [268.778002, 195968.3038, 0.49853809], [269.494612, 138821.5254, 0.00289994], [330.130719, 171621.6991, 0.18459969], [346.892386, 172478.5679, 0.29616329]], "x_data_min": [[207.698969, 58786.1212, 0.00289994]], "x_data_max": [[381.812812, 197623.7101, 0.49853809]], "x_data_scaled": [[1.0, 0.6850401289272173, 0.9769616402611462], [0.47246546042866905, 0.1492382816797822, 0.8966979035007696], [0.6952787952650038, 0.6336945786588778, 0.9422755895606503], [0.12700881572064315, 0.0, 0.5657558039065396], [0.5420297052429083, 0.8814425925254599, 0.4287023910487924], [0.6566957803579121, 0.7637683889510415, 0.8083225635476204], [0.21059732740492096, 0.7181417791100808, 0.6117105190550808], [0.30330425823752566, 0.46210779161694304, 0.15328664671999118], [0.6047898672824079, 0.5896133579427206, 0.6967376905914123], [0.6826214846110771, 1.0, 0.09072873022385383], [0.0, 0.3524153983633463, 0.7504410626986644], [0.5937446283349221, 0.8001971813268791, 0.25682349108921504], [0.8351458246774783, 0.24735152109804462, 0.11432184951864581], [0.27756478271518015, 0.9582883868419009, 0.6100496703088736], [0.2906874613065661, 0.9894576669647135, 0.9956843314018503], [0.8737708063798235, 0.995384231280035, 0.8652211900960408], [0.35079940771854656, 0.9880766706400215, 1.0], [0.3549151631786107, 0.5764678343531794, 0.0], [0.7031706835624781, 0.8127163457244395, 0.3665975873729656], [0.799439117543342, 0.8188880806759674, 0.5916884122015225]], "optimal_weights": [4.484845622664149, 0.03217395450855104, 0.9553495824173673], "optimal_p": 2, "optimal_mean": [[5547.987926264195]], "optimal_variance": [[86928570.94766507]], "regularization_parameter": 0.00014919748811940902, "optimal_covariance_matrix": [[1.0001491974881194, 0.282665520312621, 0.6585764802710452, 0.02747164874731349, 0.29257184463493463, 0.5735313276309656, 0.053812583074164276, 0.05921245034940041, 0.4603330662705606, 0.299606254752327, 0.010700917296349075, 0.2905254064847973, 0.43215596752859, 0.084440068292883, 0.10437645426511977, 0.9171466588250627, 0.15052125228668436, 0.062130684903237636, 0.4716190712958123, 0.7241291022458809], [0.282665520312621, 1.0001491974881194, 0.7927959530638572, 0.52699099760768, 0.7802096058324018, 0.8421213329921556, 0.673307957694515, 0.5171256685459684, 0.8842930189715434, 0.43087163422704294, 0.3595552058737558, 0.624529179252569, 0.30881456935823554, 0.7634399295384733, 0.8350460124975249, 0.47414207491375027, 0.9055420672625005, 0.43343663141309047, 0.5937316495988108, 0.5583398148818245], [0.6585764802710452, 0.7927959530638572, 1.0001491974881194, 0.2025736221783691, 0.6981765789171075, 0.9759314303159877, 0.3140553080962432, 0.2767265167640094, 0.9099346678364765, 0.4976838708864275, 0.11016965711070179, 0.6089659663218382, 0.4735784996033028, 0.4100919115830876, 0.47666550447165096, 0.8583307765425716, 0.5830846795683808, 0.25464063364228356, 0.7276622764177265, 0.8460434637326276], [0.02747164874731349, 0.52699099760768, 0.2025736221783691, 1.0001491974881194, 0.44245234934249567, 0.263609796731191, 0.9512804775280966, 0.7343317984870075, 0.34946486971082363, 0.19549010632255465, 0.8967952592001605, 0.33663082380364995, 0.0866720777449828, 0.8753962280762798, 0.7201925131723941, 0.07290904004575897, 0.6465073357560734, 0.577279596887326, 0.21268465847568524, 0.12872245988233946], [0.29257184463493463, 0.7802096058324018, 0.6981765789171075, 0.44245234934249567, 1.0001491974881194, 0.8211163249418485, 0.591257734477727, 0.7162578299175868, 0.9148087446313752, 0.8201845882691282, 0.24038129784821755, 0.9603763189408866, 0.6109848759218744, 0.7080177417695068, 0.5538779027949217, 0.508634686074641, 0.6211515433453044, 0.714912681652059, 0.8866613882462016, 0.7242140143679068], [0.5735313276309656, 0.8421213329921556, 0.9759314303159877, 0.263609796731191, 0.8211163249418485, 1.0001491974881194, 0.3947515456803221, 0.3779724007178589, 0.9753545369748903, 0.6084999088893565, 0.1433119403074174, 0.7346315457588756, 0.5425205284082276, 0.5048836102645644, 0.5294190016617781, 0.8056129571281739, 0.6335748052102803, 0.35565932826678887, 0.8218702847929433, 0.8725683090545286], [0.053812583074164276, 0.673307957694515, 0.3140553080962432, 0.9512804775280966, 0.591257734477727, 0.3947515456803221, 1.0001491974881194, 0.7855088877371273, 0.4944405180229482, 0.28333847505553683, 0.8012368312758175, 0.4589006239389813, 0.1363073646477681, 0.978268567008716, 0.8419884855060373, 0.1305104492192165, 0.7909360939357704, 0.6366491565852752, 0.31795769869151674, 0.21102874148131948], [0.05921245034940041, 0.5171256685459684, 0.2767265167640094, 0.7343317984870075, 0.7162578299175868, 0.3779724007178589, 0.7855088877371273, 1.0001491974881194, 0.5014162222619133, 0.5177130450982109, 0.4706526135118391, 0.6755414654027035, 0.2804114274603392, 0.8104146015485205, 0.502776353189352, 0.1418646144508745, 0.4946374826504262, 0.9657844071944856, 0.46555685551563825, 0.27481591348168616], [0.4603330662705606, 0.8842930189715434, 0.9099346678364765, 0.34946486971082363, 0.9148087446313752, 0.9753545369748903, 0.4944405180229482, 0.5014162222619133, 1.0001491974881194, 0.6815157597972469, 0.19301430479638104, 0.8295619706286761, 0.567897329455293, 0.6115412456395706, 0.5868424677504643, 0.6998434733703395, 0.6822954268726299, 0.47530637930836794, 0.861452603298858, 0.8334702947250269], [0.299606254752327, 0.43087163422704294, 0.4976838708864275, 0.19549010632255465, 0.8201845882691282, 0.6084999088893565, 0.28333847505553683, 0.5177130450982109, 0.6815157597972469, 1.0001491974881194, 0.08053260534940788, 0.9388812016599981, 0.884182612597483, 0.3702632437843725, 0.2296246289928259, 0.47858387979021105, 0.27701851803509286, 0.6094066501092689, 0.9270684383645998, 0.7393289879778115], [0.010700917296349075, 0.3595552058737558, 0.11016965711070179, 0.8967952592001605, 0.24038129784821755, 0.1433119403074174, 0.8012368312758175, 0.4706526135118391, 0.19301430479638104, 0.08053260534940788, 1.0001491974881194, 0.16197963245402375, 0.029748579892741423, 0.686490708199049, 0.6379587911351605, 0.031747013018060224, 0.5355798237396104, 0.3313553028386894, 0.09393975496423645, 0.05516889891364784], [0.2905254064847973, 0.624529179252569, 0.6089659663218382, 0.33663082380364995, 0.9603763189408866, 0.7346315457588756, 0.4589006239389813, 0.6755414654027035, 0.8295619706286761, 0.9388812016599981, 0.16197963245402375, 1.0001491974881194, 0.7478252787881617, 0.5664590292109852, 0.39274409958921475, 0.4933561670894318, 0.45226257277731036, 0.7258316970164869, 0.9368621189725147, 0.7431229870226724], [0.43215596752859, 0.30881456935823554, 0.4735784996033028, 0.0866720777449828, 0.6109848759218744, 0.5425205284082276, 0.1363073646477681, 0.2804114274603392, 0.567897329455293, 0.884182612597483, 0.029748579892741423, 0.7478252787881617, 1.0001491974881194, 0.1929433865976945, 0.12377386056577563, 0.5692886879827164, 0.1621618616753607, 0.3498423329798265, 0.8613969234603281, 0.7914158352640995], [0.084440068292883, 0.7634399295384733, 0.4100919115830876, 0.8753962280762798, 0.7080177417695068, 0.5048836102645644, 0.978268567008716, 0.8104146015485205, 0.6115412456395706, 0.3702632437843725, 0.686490708199049, 0.5664590292109852, 0.1929433865976945, 1.0001491974881194, 0.8668602399685391, 0.19081708479769274, 0.8442101445864643, 0.6790454530739132, 0.4190810281387048, 0.2945202081259668], [0.10437645426511977, 0.8350460124975249, 0.47666550447165096, 0.7201925131723941, 0.5538779027949217, 0.5294190016617781, 0.8419884855060373, 0.502776353189352, 0.5868424677504643, 0.2296246289928259, 0.6379587911351605, 0.39274409958921475, 0.12377386056577563, 0.8668602399685391, 1.0001491974881194, 0.2141566875813955, 0.9839072911564185, 0.37866252147048657, 0.31913304529894193, 0.26775952669305475], [0.9171466588250627, 0.47414207491375027, 0.8583307765425716, 0.07290904004575897, 0.508634686074641, 0.8056129571281739, 0.1305104492192165, 0.1418646144508745, 0.6998434733703395, 0.47858387979021105, 0.031747013018060224, 0.4933561670894318, 0.5692886879827164, 0.19081708479769274, 0.2141566875813955, 1.0001491974881194, 0.288241351110866, 0.1454098642267738, 0.691337894912454, 0.9073188523439811], [0.15052125228668436, 0.9055420672625005, 0.5830846795683808, 0.6465073357560734, 0.6211515433453044, 0.6335748052102803, 0.7909360939357704, 0.4946374826504262, 0.6822954268726299, 0.27701851803509286, 0.5355798237396104, 0.45226257277731036, 0.1621618616753607, 0.8442101445864643, 0.9839072911564185, 0.288241351110866, 1.0001491974881194, 0.38255741837314966, 0.39018375241621717, 0.3454545489301698], [0.062130684903237636, 0.43343663141309047, 0.25464063364228356, 0.577279596887326, 0.714912681652059, 0.35565932826678887, 0.6366491565852752, 0.9657844071944856, 0.47530637930836794, 0.6094066501092689, 0.3313553028386894, 0.7258316970164869, 0.3498423329798265, 0.6790454530739132, 0.37866252147048657, 0.1454098642267738, 0.38255741837314966, 1.0001491974881194, 0.5096049707698558, 0.2944734316059444], [0.4716190712958123, 0.5937316495988108, 0.7276622764177265, 0.21268465847568524, 0.8866613882462016, 0.8218702847929433, 0.31795769869151674, 0.46555685551563825, 0.861452603298858, 0.9270684383645998, 0.09393975496423645, 0.9368621189725147, 0.8613969234603281, 0.4190810281387048, 0.31913304529894193, 0.691337894912454, 0.39018375241621717, 0.5096049707698558, 1.0001491974881194, 0.913959829603139], [0.7241291022458809, 0.5583398148818245, 0.8460434637326276, 0.12872245988233946, 0.7242140143679068, 0.8725683090545286, 0.21102874148131948, 0.27481591348168616, 0.8334702947250269, 0.7393289879778115, 0.05516889891364784, 0.7431229870226724, 0.7914158352640995, 0.2945202081259668, 0.26775952669305475, 0.9073188523439811, 0.3454545489301698, 0.2944734316059444, 0.913959829603139, 1.0001491974881194]], "covariance_matrix_inverse": [[35.321812406041126, 6.96465343139241, -11.256403338973316, 4.1707269804263, -6.074318176548408, 103.98442057917846, -14.679306962657703, 5.783775219976082, -81.02218968940583, 0.7400311333159714, -2.4349391743953, 17.36594919826134, -4.607797934040996, 15.015347999244234, 25.22205547813249, -80.48195686276013, -32.16307672266982, -5.6097355734292025, -16.167593757174497, 41.93276801300716], [6.964653431396337, 121.36351887552753, -97.20310650265527, -12.948234134743096, -20.336047364398727, 296.3243915213602, -67.09942176202759, 7.877813469026243, -310.10856691692356, -46.46494382404979, 11.463148550198925, 53.98961239698039, 1.7656528608780588, 84.13644592714417, 72.5178557782447, -7.341835682501302, -135.92623225370326, -6.625775198644217, 76.9214506773183, -28.999998145608316], [-11.256403338974398, -97.20310650264781, 380.2168292846883, 28.02244058379335, 264.5734839608374, -705.4189174571525, 50.20238810324769, -70.00390831246281, 304.4964197603035, 68.2786249373322, -11.31582681776408, -279.31265943382255, -20.98259443304721, -82.29617570027713, -63.669204426478444, -43.59057907493242, 118.6184993785091, 57.38923173022285, 20.539902671281666, 94.39643408805802], [4.1707269804231055, -12.94823413476147, 28.022440583793944, 133.71681600796805, -59.727873221822826, -6.585095433497856, -325.6386244217075, -62.80894807187105, 2.1320629010012424, -20.355239321127687, -18.516104801112405, 26.742649645871463, -0.2435449491075877, 262.1439481894085, 75.57619787421733, -16.192961016843686, -77.96985979926745, 42.55024322413435, 33.354464489688766, -5.945471578781544], [-6.0743181765415795, -20.336047364343333, 264.57348396084564, -59.727873221785764, 934.0688567339274, -377.38818917992637, 607.0925670597373, -131.1621997601873, -105.99727168126198, 124.1056601431942, -39.66060899733957, -717.1614573910449, 34.83336285195248, -675.9355443065667, 10.777028403683843, -35.396818659938845, 36.44326626468125, 119.11175693986849, -29.733425562068007, 72.32040386579192], [103.98442057918616, 296.3243915213386, -705.418917457157, -6.585095433459331, -377.38818918000106, 1889.940900738574, -228.7119618107173, 112.06643092178773, -1277.7220708795394, -221.31456055872226, 3.6113316552711416, 630.03705048514, 58.106775920700386, 280.21976593265106, 321.377804818798, -176.78844288115425, -492.53376919475966, -113.81766149164015, -42.05238005226457, -53.29632765275062], [-14.679306962646077, -67.09942176194077, 50.20238810325146, -325.63862442168283, 607.0925670598456, -228.71196181055535, 1471.0238649706403, -62.87014762309971, 77.61898224261567, 64.61082061957212, -42.4029815035312, -310.0477105367454, 34.00590777334216, -1295.5923438610378, -345.01830306961466, 30.28297143830706, 422.8086381542135, 49.266204632980546, -191.40607187602419, 68.4994239968297], [5.783775219976253, 7.877813469024324, -70.00390831245419, -62.80894807190489, -131.16219976006653, 112.0664309217728, -62.870147622937054, 253.82575062507135, 14.382201719958692, 63.25298615268809, 31.607994458939743, 129.288778647311, -15.148247594822163, 12.043710512093405, 74.25252841562693, -19.87869471759769, -57.36405786416997, -200.4271252832041, -146.2851822369419, 61.98997750835603], [-81.02218968942152, -310.1085669169339, 304.4964197603273, 2.1320629009191796, -105.99727168106799, -1277.722070879632, 77.61898224298403, 14.382201719973054, 1331.7846042123033, 216.8763594246816, 3.236156807473686, -264.78028036432124, -44.02795887615907, -110.8058151928377, -222.4881558032948, 207.5905089774329, 374.11844468630954, 15.867038698068844, -101.1683513639477, -31.246422867508734], [0.7400311333144796, -46.464943824042955, 68.27862493733817, -20.355239321149096, 124.10566014327716, -221.3145605587279, 64.61082061968189, 63.252986152669514, 216.8763594246441, 162.28495156439303, 1.5335869333744176, -185.05226821020844, -27.470953910424246, -101.53677158651404, 21.192455774074816, -25.92320762076104, 5.207550243610721, -44.26517913183966, -156.1601654369549, 102.60267369400707], [-2.434939174395075, 11.463148550198481, -11.3158268177668, -18.516104801113634, -39.66060899734284, 3.611331655274856, -42.402981503531045, 31.607994458945697, 3.2361568074773555, 1.53358693337698, 19.487099222145527, 17.963663080178105, -4.034718624627493, 44.78947655130505, -13.5404928421439, 8.960222988007366, 7.1178139656667145, -21.21448188466254, 10.012413967532222, -4.966289582174607], [17.36594919826362, 53.989612396957405, -279.31265943383914, 26.742649645843223, -717.1614573909671, 630.0370504851588, -310.0477105366516, 129.28877864739647, -264.7802803642685, -185.05226821014514, 17.96366308017362, 968.0510834416461, 14.097148613688798, 370.5549991479653, -19.331711802514704, -83.01921142852656, -18.585898667019794, -171.63955382526512, -374.45153538816595, 186.18212439271363], [-4.607797934041117, 1.7656528608800177, -20.982594433045257, -0.24354494910609004, 34.833362851958775, 58.10677592069969, 34.005907773339544, -15.148247594827993, -44.027958876166004, -27.47095391042722, -4.034718624627531, 14.097148613677158, 24.34180313745418, -35.89788323017342, 8.991098774436782, 14.129154381071178, -9.730169825123829, 9.643544304975897, -16.19399763715745, -20.648727104584967], [15.015347999234352, 84.1364459270637, -82.29617570028968, 262.1439481893984, -675.9355443067192, 280.21976593252015, -1295.5923438611019, 12.043710512254469, -110.8058151924909, -101.53677158641585, 44.78947655130719, 370.5549991481026, -35.89788323017686, 1228.4879447020692, 239.07770183864025, -19.9153982028815, -343.9144027081804, -13.402362819824184, 242.42991691816317, -95.42903627483366], [25.222055478127142, 72.51785577820935, -63.66920442644879, 75.5761978741897, 10.77702840376019, 321.3778048186801, -345.01830306947534, 74.25252841563174, -222.4881558031716, 21.19245577410737, -13.540492842151016, -19.331711802605362, 8.991098774438932, 239.07770183849806, 421.52484497436865, -65.09983167315092, -464.56980416670797, -51.14169091804335, -14.990660691231398, -7.639383898635464], [-80.4819568627619, -7.34183568249858, -43.59057907492803, -16.19296101684687, -35.396818659951464, -176.78844288116366, 30.28297143831692, -19.878694717597984, 207.59050897742705, -25.92320762076648, 8.960222988008299, -83.01921142850239, 14.129154381068203, -19.915398202885058, -65.09983167317085, 256.2818816961883, 74.23060413209707, 30.979563180483773, 197.97521310072358, -248.4309442344898], [-32.16307672266544, -135.9262322536626, 118.61849937848369, -77.96985979924928, 36.44326626464477, -492.5337691946416, 422.8086381541241, -57.364057864184, 374.11844468615755, 5.207550243576496, 7.117813965673283, -18.58589866695031, -9.730169825124644, -343.91440270808204, -464.5698041667308, 74.23060413207685, 557.1628223816483, 39.50951039563996, -37.217913496518044, 32.46636946966363], [-5.609735573430184, -6.625775198644143, 57.389231730218306, 42.55024322416222, 119.11175693976244, -113.81766149163796, 49.26620463284861, -200.4271252832078, 15.86703869808872, -44.26517913185736, -21.214481884657708, -171.63955382519222, 9.643544304970261, -13.402362819690492, -51.14169091804654, 30.97956318048648, 39.509510395636106, 172.93874784665527, 180.66586006358133, -88.0948436630379], [-16.16759375717712, 76.92145067729413, 20.53990267128391, 33.35446448974821, -29.73342556236201, -42.05238005232451, -191.40607187631971, -146.2851822369271, -101.1683513637966, -156.16016543697947, 10.012413967540924, -374.45153538796467, -16.193997637175748, 242.42991691845899, -14.990660691217803, 197.97521310072918, -37.21791349653559, 180.6658600635624, 917.5739094755237, -549.690618201424], [41.93276801301173, -28.999998145590528, 94.39643408804247, -5.94547157880124, 72.320403865912, -53.29632765267925, 68.49942399692428, 61.989977508353334, -31.246422867603595, 102.60267369401613, -4.966289582177492, 186.18212439263246, -20.648727104575098, -95.42903627493295, -7.639383898621092, -248.43094423450012, 32.466369469645315, -88.09484366303211, -549.6906182014255, 471.4204564147493]], "optimal_y_mu": [[19738.55944321487], [-3966.348473400976], [1104.701213180574], [-6798.884520264195], [-3709.252429398657], [-899.2175502641949], [-6379.643707164195], [-5842.666331564195], [-2021.728617442131], [-1830.977942481943], [-7455.320211264196], [-2678.5969050909807], [-511.14389926419517], [-6022.817839764195], [-5949.7929582641955], [11317.996931471844], [-5584.979524614195], [-5526.972159836174], [708.1372001116342], [6288.841717459161]], "training_R2": 0.9999741836806896, "training_rmse": 33.71025630817449}, "map": {"x_data_columns": "list", "x_data": "numpy", "x_data_min": "numpy", "x_data_max": "numpy", "x_data_scaled": "numpy", "optimal_weights": "numpy", "optimal_p": "str", "optimal_mean": "numpy", "optimal_variance": "numpy", "regularization_parameter": "str", "optimal_covariance_matrix": "numpy", "covariance_matrix_inverse": "numpy", "optimal_y_mu": "numpy", "training_R2": "str", "training_rmse": "str"}}}, "input_labels": ["temperature", "pressure", "mole_frac_1"], "output_labels": ["mole_frac_1_gas_phase", "enth_mol_gas_phase"], "input_bounds": {"temperature": [200, 600], "pressure": [50000, 200000], "mole_frac_1": [0, 0.5]}, "surrogate_type": "kriging"}